svm_type c_svc
kernel_type rbf
gamma 0.4
nr_class 2
total_sv 51
rho 0.0678067
label 1 -1
nr_sv 25 26
SV
3 0:1.527571 1:0.173905 2:0.87355 3:0.609278 4:1 5:1.116742 6:0.0205 7:0.0058 
3 0:1.498818 1:0.531567 2:1.075003 3:0.488187 4:1 5:1.287517 6:0.0284 7:0.005 
3 0:1.370811 1:0.51367 2:0.815625 3:0.302958 4:1 5:1.122977 6:0.0354 7:0.0032 
3 0:1.560098 1:0.397974 2:0.899075 3:0.433789 4:1 5:1.22562 6:0.0382 7:0.0061 
3 0:1.585394 1:0.297562 2:0.999392 3:0.65051 4:1 5:1.221187 6:0.0266 7:0.0045 
3 0:1.532493 1:0.244165 2:0.978642 3:0.688073 4:1 5:1.157732 6:0.0345 7:0.0044 
3 0:1.586174 1:0.244843 2:0.884546 3:0.322684 4:1 5:1.202719 6:0.0377 7:0.0039 
3 0:1.722428 1:0.119406 2:0.96429 3:0.702602 4:1 5:1.229764 6:0.0238 7:0.0044 
3 0:1.453069 1:0.573392 2:1.215682 3:1.019789 4:1.159209 5:1.248257 6:0.0251 7:0.0033 
3 0:1.434302 1:0.21375 2:0.769733 3:0.064926 4:1 5:1.147501 6:0.0216 7:0.0042 
3 0:1.633795 1:0.268952 2:0.887125 3:0.358831 4:1 5:1.245488 6:0.0218 7:0.0036 
3 0:1.340252 1:0.648553 2:1.03107 3:0.658587 4:1 5:1.182396 6:0.0487 7:0.0093 
2.364577886905181 0:1.551336 1:0.556036 2:0.935679 3:0.307751 4:1 5:1.305967 6:-0.0048 7:0.0051 
3 0:1.19762 1:0.482814 2:0.68764 3:0.531432 4:1 5:0.922047 6:0.0538 7:0.0049 
3 0:1.683897 1:0.144291 2:0.989899 3:0.69203 4:1 5:1.240693 6:0.036 7:0.005 
3 0:1.490347 1:0.561501 2:0.888807 3:0.338717 4:1 5:1.236832 6:0.0286 7:0.0054 
3 0:1.536945 1:0.075763 2:0.648785 3:0.286392 4:1 5:1.111015 6:0.0725 7:0.0057 
3 0:1.51125 1:0.19549 2:0.861823 3:0.563431 4:1 5:1.117703 6:0.0747 7:0.0142 
3 0:1.563873 1:0.305941 2:0.690022 3:0.155548 4:1 5:1.182693 6:0.0281 7:0.0096 
3 0:1.561831 1:0.03545 2:0.515946 3:0.23047 4:1 5:1.06756 6:0.0622 7:0.0103 
3 0:1.500372 1:0.338298 2:0.954251 3:0.669056 4:1 5:1.163787 6:0.0364 7:0.0059 
1.723323078883456 0:1.799046 1:-0.259508 2:0.65024 3:-0.115939 4:1 5:1.171185 6:0.0563 7:0.0055 
3 0:1.656181 1:0.358974 2:0.952125 3:0.458005 4:1 5:1.280279 6:0.0298 7:0.0065 
3 0:1.495908 1:0.512341 2:1.012946 3:0.394015 4:1 5:1.271823 6:0.0391 7:0.007 
3 0:1.360714 1:0.393425 2:0.556911 3:0.07377 4:1 5:1.047789 6:0.0538 7:0.0073 
-3 0:1.47188 1:0.387966 2:0.99696 3:0.658533 4:1 5:1.18798 6:0.0305 7:0.0055 
-3 0:1.325676 1:0.381274 2:0.797048 3:0.529148 4:1 5:1.033322 6:0.0614 7:0.01 
-3 0:1.326048 1:0.234919 2:0.673687 3:0.452908 4:1 5:0.966412 6:0.0557 7:0.0084 
-3 0:1.76017 1:0.060418 2:0.898254 3:0.246122 4:1 5:1.305247 6:0.0182 7:0.0044 
-3 0:1.279305 1:0.414113 2:0.789729 3:0.333189 4:1 5:1.041925 6:0.0416 7:0.0051 
-1.600747835108787 0:1.387439 1:0.353012 2:1.098593 3:0.764604 4:1.121173 5:1.187938 6:0.051 7:0.0047 
-3 0:1.255786 1:0.422802 2:1.017562 3:0.547467 4:1.127714 5:1.1945 6:0.041 7:0.0023 
-3 0:1.428281 1:0.500904 2:0.943166 3:0.524645 4:1 5:1.179951 6:0.0555 7:0.007 
-3 0:1.500395 1:0.198723 2:0.795349 3:0.363691 4:1 5:1.122986 6:0.0438 7:0.0071 
-3 0:1.509464 1:0.259448 2:1.119702 3:0.387346 4:1.037567 5:1.313013 6:0.0206 7:0.0022 
-3 0:1.459699 1:0.322054 2:0.934114 3:0.662728 4:1 5:1.134826 6:0.0419 7:0.0058 
-3 0:1.423664 1:0.456171 2:1.005088 3:0.460789 4:1 5:1.214202 6:0.0385 7:0.0055 
-3 0:1.622676 1:0.249219 2:1.063573 3:0.538688 4:1 5:1.298031 6:0.0268 7:0.0053 
-3 0:1.185385 1:0.583641 2:0.6342 3:0.226092 4:1 5:0.987744 6:0.0543 7:0.0069 
-3 0:1.301665 1:0.405185 2:0.751573 3:0.524518 4:1 5:0.996911 6:0.0507 7:0.0088 
-1.737190115346729 0:1.527763 1:0.015577 2:0.939409 3:0.714194 4:1 5:1.089698 6:0.0463 7:0.0075 
-3 0:1.287613 1:0.554581 2:0.987044 3:0.615678 4:1 5:1.111365 6:0.0338 7:0.0079 
-3 0:1.478923 1:0.290432 2:1.100047 3:0.812364 4:1.007917 5:1.148256 6:0.0564 7:0.0055 
-3 0:1.563064 1:-0.009392 2:0.749466 3:0.295667 4:1 5:1.082037 6:0.0549 7:0.0089 
-0.7499630153331196 0:1.431851 1:0.051999 2:0.693315 3:0.539277 4:1 5:0.966461 6:0.0455 7:0.0055 
-3 0:1.350706 1:0.510502 2:0.865511 3:0.372174 4:1 5:1.145883 6:0.0393 7:0.0066 
-3 0:1.679576 1:0.341873 2:1.33132 3:0.740188 4:1 5:1.411837 6:0.0124 7:0.002 
-3 0:2.005928 1:-0.161245 2:0.866678 3:0.058274 4:1 5:1.382846 6:0.0265 7:0.004 
-3 0:1.456378 1:0.118187 2:0.683688 3:0.406719 4:1 5:1.049822 6:0.0592 7:0.0057 
-3 0:1.622713 1:0.032474 2:0.782715 3:0.367058 4:1 5:1.129778 6:0.0195 7:0.0044 
-3 0:1.322518 1:0.364549 2:0.718095 3:0.49993 4:1 5:1.001783 6:0.0424 7:0.0092 
